51 20
-491.363586
338.565063
-353.117310
-100.828377
126.775864
188.292145
-389.347595
115.410690
385.739594
186.698624
143.402695
207.083786
224.492355
88.110207
-321.036255
402.276215
208.496918
157.864746
304.289124
369.984680
62.643784
489.439331
399.119232
0.886965
-334.776672
300.019684
4.976024
-278.251465
-263.278290
224.522415
154.437149
225.063614
30.502577
68.176041
-421.548920
406.425415
491.363586
-165.080734
-120.010880
292.533081
-302.154419
492.295654
190.036011
384.386597
4.074026
-345.690857
-268.870667
-427.622375
-348.216461
273.621185
403.088013
390.189453
177.257706
311.384857
-221.696152
21.632927
271.426331
-181.316696
490.130859
-191.689682
304.168884
109.848366
-194.034882
-465.536377
456.185669
74.910965
-206.602722
-326.177643
-369.353271
-461.988525
-43.882217
-104.857307
189.945816
170.192047
174.010513
-58.945591
139.554169
151.310226
268.479797
-103.504311
83.750542
-105.969772
-72.355301
487.304596
192.862274
362.287628
413.761658
122.265877
425.247101
363.219696
415.054535
-101.068916
-125.994133
-154.106415
333.904755
-386.551392
119.409546
-88.140274
-291.210175
-17.844534
-19.828930
-230.325272
-423.262726
71.513435
418.512207
405.463287
50.406673
-156.662079
-413.671478
142.380432
161.743332
397.886505
-109.728096
-482.524017
55.818665
-143.823639
439.498688
-71.423233
-324.554047
-440.791565
-147.491760
-199.717468
459.703461
-442.836090
-305.461731
113.005356
160.390335
-177.919174
-446.203552
203.505859
-344.067261
-188.562744
-443.377289
-229.242874
-126.866066
318.270111
185.375687
-274.252594
-110.088898
149.716690
390.099243
335.107422
180.474838
30.863377
-161.623062
224.311951
-379.756317
-130.474060
-434.748169
-408.409821
134.322586
-110.239227
305.191132
-156.090805
275.365051
-71.212769
-207.083786
175.874649
-314.060791
-491.754456
318.059631
-469.204498
-341.631866
-301.402740
-316.887054
-450.022003
-7.351286
158.616409
-161.172073
51.218472
68.506775
69.529037
-325.546234
-263.939758
-263.518799
-325.275635
66.161575
-328.613037
79.781754
264.601196
242.953247
-122.295944
371.668427
337.963745
487.845795
165.291199
-119.078812
297.915009
408.560150
441.272614
-76.805161
-144.274628
-432.673553
267.006531
136.186722
-491.754456
-206.512512
-2.420362
-299.869354
252.394165
-321.066315
-401.344147
316.917114
124.881668
-41.927891
469.475098
-3.141961
302.334808
-99.896317
-434.688019
436.461975
230.235077
-186.638489
-126.354935
-264.360687
155.128677
47.520279
7.531686
453.329315
-276.116730
353.628448
174.581772
80.834084
155.279007
490.641998
-182.248764
289.015289
26.142918
-66.221710
-221.696152
39.973560
241.720520
280.265930
364.392303
-291.029755
269.502075
209.218506
298.245758
-305.161072
-340.128540
207.384445
-437.213623
-304.078674
-297.674469
-396.533508
68.176041
9.125216
109.457497
439.558807
-349.569458
77.406487
232.880936
-283.272583
-377.471283
464.063110
-429.817230
-249.808441
-63.966717
-116.523148
-435.920746
13.334542
-483.937134
-317.338043
337.091797
123.318207
-191.298813
-115.891754
293.765839
332.190948
474.646545
35.914566
235.887604
-175.453705
222.237350
-215.021362
-404.110291
45.986881
-488.146454
-193.102814
168.087387
-193.102814
412.589081
312.497314
-371.097137
-399.600281
-321.246704
185.375687
394.669373
33.719704
118.206879
-241.089127
-355.342255
-15.108472
127.016396
-470.046356
-112.644562
-7.261086
-158.135345
-373.562622
-460.394989
-477.833618
-220.794159
-24.368988
-384.296387
-61.350922
-385.649384
31.675175
-349.930267
337.031677
-204.678452
-101.519913
-295.389435
-483.576324
388.114838
265.232605
181.166367
445.361664
-122.265877
-297.373810
-151.851425
-402.546814
-223.740692
-339.346802
239.525650
425.126862
363.580505
104.706970
128.249130
190.667419
416.227142
-147.521820
-224.041351
-59.246258
-312.286865
-343.014923
303.056396
167.305664
-365.925690
-447.045410
194.936874
-133.540848
86.606873
3.863559
-183.180832
-444.880615
346.021606
-103.263779
-96.137985
-100.798317
-130.504120
-456.516388
177.768845
7.742152
35.042637
-446.323822
-340.790009
261.233765
322.479431
267.156860
293.735748
-347.464783
188.352280
228.581406
434.537689
388.776306
240.698257
-486.793457
-242.652588
-237.270660
191.659607
290.879425
405.042358
104.376244
396.052429
-483.486145
-351.854523
121.544273
229.844208
257.174744
-62.794117
-329.154236
332.611877
-93.011063
-210.751907
-206.873322
-340.008270
204.798721
-358.078308
-488.326874
-277.199127
-298.997406
-130.203461
254.709290
275.936310
-149.175491
-444.850555
-53.443401
385.348724
375.396667
474.586426
481.291290
223.139359
-217.156097
-161.262268
-268.660217
-170.522781
-393.466705
349.930267
25.210854
-338.985992
-423.352905
17.393534
-97.460922
458.320374
141.749039
-151.580826
294.337097
141.207840
-490.852448
133.540848
-53.503536
-14.837873
67.725044
-354.410187
265.082275
-414.423126
121.243607
-427.411896
448.067657
-255.611298
-108.946365
-384.837585
-147.972824
-298.155548
-154.437149
-474.315826
241.900925
148.363693
-50.617138
-201.671799
-375.276398
-290.278107
179.542770
229.633743
-87.959869
-417.129120
357.867828
-71.122566
-99.806114
21.121794
89.403069
401.404297
337.572876
395.601440
-84.171478
471.339233
481.682129
14.266607
-72.535698
-22.685259
-487.996124
240.126984
252.063431
329.665344
-293.615479
138.892715
-8.373551
72.265099
-255.070099
396.323029
-422.721527
-292.533081
435.770416
293.014160
-82.247215
145.447235
-290.999695
230.505676
297.073151
368.812073
-483.816864
-31.073843
218.629364
204.918991
126.174530
315.263458
243.674850
-194.786545
84.291740
-387.754059
-297.854889
17.694201
121.484138
446.684601
-403.268433
-439.739227
127.557594
233.662674
-38.079365
-414.483276
-120.311546
-41.416756
-24.338923
98.753784
102.602310
44.423416
-3.051761
47.339878
-241.239456
396.683838
-339.016083
152.542953
489.920380
343.646332
44.513618
408.018951
403.749481
450.322662
-5.066224
-393.105896
31.194109
442.505341
-371.397827
243.554581
-47.670612
-50.977940
-118.116684
-270.373993
181.286636
-57.412193
142.200043
-60.569187
-439.919617
384.566986
196.319931
135.435043
89.944267
-33.659573
245.689316
-351.493713
70.130371
240.818527
-130.233521
-243.614716
-33.148438
-89.673668
281.137848
-185.856750
438.686890
-413.671478
-44.994682
184.864563
61.922184
126.805931
-159.608612
-67.274040
412.198212
-134.713455
-257.625763
-351.704193
100.257118
-385.919983
329.725494
-350.260986
96.378525
-198.274261
52.030270
-383.604858
-63.545784
277.920715
102.752640
-403.508942
358.168518
-309.881531
155.188812
-471.850372
5.457090
-382.071472
58.524658
411.807343
105.578903
97.581184
-458.019714
-491.002777
132.729050
-33.930172
-140.786911
303.477325
384.446716
-323.351379
194.425735
-414.212677
-111.562157
115.200218
370.676208
-253.596832
-10.448148
398.668243
-401.223877
-188.442490
-328.823486
-113.065491
16.762136
-432.493164
349.539398
1.187631
448.969666
-359.882294
-485.530670
467.370422
-57.833126
-417.940918
-190.727554
-231.527939
34.952435
-106.450836
-49.534740
316.466125
415.776123
-124.310402
160.630875
231.527939
160.570740
301.703400
323.922638
-342.203125
128.910599
-212.555908
434.447510
271.787140
181.737625
-465.205627
-212.585968
-245.659241
68.987839
151.731155
383.574799
-44.543686
387.994568
309.190002
-48.482410
107.352837
-72.686035
347.404663
122.927338
-174.341248
-318.630920
283.843842
100.046646
364.903412
-101.940842
-142.771301
-466.288025
228.761810
-439.408478
277.710266
433.876221
-385.529114
351.734253
-446.654541
-145.687759
71.333038
-389.467834
-285.136719
217.637161
234.474472
-123.889473
389.377655
281.919586
-285.076569
330.747742
-189.915756
110.900696
283.843842
-33.719704
-470.106506
-312.377045
363.971375
-433.846161
309.550781
-436.401825
-136.607651
442.685760
-378.704010
64.778511
-183.361221
-362.919037
285.347168
75.542358
-42.739689
90.846268
194.365601
-107.202499
-324.193237
-236.458862
321.216644
-244.366379
257.505493
-8.974883
-256.152496
106.090034
-343.285522
415.144745
52.421135
-123.017540
321.848053
239.675995
240.187119
-352.275452
-488.898132
-295.960693
-352.034912
-474.255676
210.721848
-72.114769
-356.214172
-292.593231
-454.050934
130.083191
391.993439
279.123383
-270.825012
48.813145
-478.555206
-311.054138
452.277008
445.030945
113.516487
-273.561066
246.922043
442.806000
-103.594505
-462.018585
-18.776598
357.958038
132.278061
227.078079
-82.096878
243.554581
-239.886459
298.125488
-73.738365
-151.731155
-380.507996
234.384262
367.819885
110.329430
-136.818115
-115.260353
-380.237396
370.435669
-425.758240
-43.641685
-412.318481
-13.214275
49.655006
434.597839
429.666901
252.273895
-227.228409
19.588398
298.396088
-27.856714
-44.814285
54.315334
221.696152
-465.175568
351.373444
-488.386993
-93.882996
-106.691368
173.138580
352.636261
302.004089
-406.455475
476.330292
123.228004
-425.848450
-240.638123
-287.662292
-195.117279
16.852335
-123.167870
248.485504
399.089172
-196.981400
-167.636383
-267.487610
-80.864151
-186.067230
480.238953
221.605957
430.298309
350.080597
64.838646
-36.034832
-451.856079
-330.176483
403.839691
-266.615662
370.405609
482.734467
341.842346
183.391296
-253.326233
437.424103
-437.514282
358.198578
-411.566803
485.320190
-310.031860
-296.832611
-96.649124
-369.804291
206.302048
-280.987518
139.253510
-284.445160
287.662292
341.030548
223.319748
247.824036
-180.414703
42.799820
-306.453918
-367.248627
137.148849
-266.555542
157.564072
-454.592133
389.858704
191.148483
223.921082
-189.675217
274.342804
-196.350006
-458.590973
-377.411133
-295.930634
369.293152
449.150055
-152.152084
-43.250820
-419.805054
103.173576
-427.832855
-362.919037
-246.741638
349.840057
-244.246109
73.347496
113.997559
109.938560
72.235031
358.829956
277.980865
55.517998
89.763870
52.060337
381.951202
419.414185
-326.117493
-224.732880
-62.343117
195.568268
280.746979
341.932526
41.777557
-428.704773
-306.123199
-57.081463
152.603088
303.808075
-26.623983
345.360138
-155.128677
43.822086
-375.998016
-442.114471
339.677551
38.770893
154.978348
475.819153
-293.645569
83.359680
24.218655
358.920166
477.653229
306.453918
-248.575714
125.452934
43.341019
369.864410
258.166962
-203.926788
-19.107332
-52.872135
116.523148
21.843393
107.653503
-352.365662
-7.982685
-199.206329
193.313278
-146.499557
108.014297
95.446457
-439.588898
159.668732
-341.361267
205.430115
-395.751770
81.375282
-303.567535
358.980316
106.420769
-432.132355
78.909821
286.068756
-452.307068
-37.357765
-429.997650
235.647064
-206.542587
-5.457090
449.360535
218.358765
-412.378601
188.652954
118.537613
-443.708008
44.694016
93.612396
224.402145
142.771301
-391.602570
488.687653
187.480347
201.130600
-321.637573
-260.752686
196.801010
66.281845
-62.373184
-413.400879
-421.398590
348.727600
24.308855
298.215668
379.666138
-211.263046
-443.708008
-414.753876
487.695465
243.193787
477.262360
-366.737488
228.130417
-468.903839
-311.565247
356.875641
4.735491
-299.508545
-263.609009
237.180466
370.074890
-478.134277
-72.114769
29.690779
432.583374
-236.248398
467.550842
288.834900
-477.472809
323.772308
252.033371
99.415253
409.492218
228.310806
-141.959503
-286.098846
-347.284393
257.445343
76.714958
110.389565
151.580826
-368.000275
-399.329681
182.880157
-299.839264
-90.996597
-35.433502
-37.237499
145.447235
261.684753
-343.946991
-442.986420
167.215454
52.571468
-49.985741
275.515381
442.926270
334.415894
32.096107
118.597748
-175.243240
204.828781
-237.631454
-351.944702
275.515381
389.467834
463.010773
89.282799
188.803284
366.406769
-42.950153
-322.359161
-198.514801
408.079071
-310.272400
20 31
388.625977
232.429932
-282.280365
-172.477112
452.036469
0.435966
-66.823044
82.728279
-304.710083
-86.426476
-26.714184
-418.001068
-247.072372
-215.382172
392.143768
-156.090805
6.208755
282.611115
291.029755
103.023239
169.320114
-392.173828
-95.416389
-104.015442
-80.202682
18.716465
231.437744
-322.689911
-485.500610
-419.083466
-290.999695
121.213539
313.459442
-460.966248
393.105896
105.639038
203.325455
425.156921
-417.279449
-52.421135
418.421997
-319.292389
-462.168915
69.649307
442.806000
-15.409138
-448.879456
-227.318619
147.401566
492.265594
-143.853699
314.421600
-87.087936
-85.223808
-219.832031
106.691368
-231.918808
-402.546814
-162.284531
-235.496735
-487.484985
-297.794739
45.656151
-369.804291
267.156860
-294.096558
283.964111
-230.595871
-115.290421
-91.597931
384.566986
99.565582
-466.318115
-141.658844
-150.829147
475.007355
-170.973785
-15.469272
-425.337311
-410.153687
132.999649
-136.697845
-486.913727
-465.566437
156.181015
-180.504898
272.659058
-485.350281
-412.077942
-428.133514
-207.354385
408.650330
-302.545288
405.583557
215.652771
-267.728149
433.665771
-76.143692
317.578583
32.637306
-191.809952
73.227234
-204.768661
-451.585480
212.134979
39.342159
224.672745
36.936832
-472.120972
-251.371902
-233.722809
117.094414
165.621933
-8.523884
184.654099
318.570770
319.442719
-410.183746
75.121429
249.327377
1.879163
446.263672
-87.027809
-296.020813
22.264326
-123.077675
55.758530
-369.383362
313.669922
144.455032
-482.674347
-1.398097
-464.243500
-23.887922
-44.543686
-88.861870
162.464935
93.401924
69.739502
333.183136
474.917145
-358.138428
93.371864
468.994019
103.083374
-237.541260
438.596680
348.276581
-343.646332
266.555542
341.842346
456.817047
354.139587
251.552307
450.022003
227.228409
147.612030
301.853729
344.157471
235.917664
95.777191
467.220093
-413.731598
487.905945
-96.889656
356.935760
-314.842529
365.264221
-224.251816
-161.051804
116.763687
6.359088
-278.281525
91.748260
-272.268188
428.885162
-326.087433
-213.668365
-185.676361
-287.752502
-386.671661
135.765778
304.679993
17.183067
-307.716736
92.109062
491.934845
409.281738
346.803314
388.114838
-358.829956
-232.880936
359.792114
369.233032
-434.237030
444.640076
-358.499237
-199.086060
426.119049
-362.588287
-149.596420
39.973560
113.817154
61.651585
-301.222351
389.918854
-206.271988
-267.337280
-490.401459
-297.854889
-406.545685
462.259125
-138.291382
-52.751869
204.437927
-392.384308
235.256195
462.379364
383.905518
-165.892532
-53.623802
16.281071
339.136353
-61.651585
-192.832214
117.425148
47.640545
-478.344757
-313.188843
438.686890
-297.584290
-325.876953
102.512108
-422.631317
-316.977234
471.790222
-150.769028
104.255974
-306.393799
114.538757
63.726181
-180.023834
-128.639999
-24.609522
406.876404
-240.217194
-75.722763
-202.573792
361.986969
-460.906128
38.349964
-273.771515
-472.812500
-39.342159
196.680740
277.349457
-239.465530
329.966034
-282.971924
241.269516
-388.956726
99.024384
-206.722992
67.664909
-130.534195
130.323730
-264.511017
446.804871
243.253922
356.845581
-443.888428
-30.472509
-27.766516
398.006775
-399.600281
-315.985046
414.813995
175.303375
177.167511
335.167542
269.441925
484.508392
132.759125
-485.711060
244.486649
-164.569595
426.479858
-325.275635
290.067627
313.820251
-359.852234
-341.631866
-12.462610
-276.567719
273.260406
448.789276
-387.272980
-450.924011
162.675400
368.300964
259.399689
153.745621
487.785675
127.226868
21.392393
-83.449883
-17.814466
-8.614084
27.014851
281.889526
-348.096191
-50.376606
363.881165
59.186123
244.636978
-146.198898
100.828377
87.118004
-378.192871
297.193420
292.803680
-435.229218
57.111526
-142.530777
416.557861
137.960648
354.740906
-45.596016
-257.084564
-293.916168
406.124756
-445.692413
-76.895355
-65.770714
-164.750000
-273.230316
-307.025208
-27.495916
-400.442169
319.412628
415.084595
-123.739136
-485.139801
144.695572
122.205742
-163.667603
-478.314697
-1.428164
-279.574371
-264.541077
91.477661
275.515381
25.240919
295.810364
-266.074463
236.128128
193.824402
-160.119736
255.009964
-241.239456
-214.420044
325.215485
-16.521603
447.766998
-129.572067
-414.453186
-194.455811
-154.557419
196.289871
321.156494
332.190948
422.090118
-212.435638
-267.367340
-268.239258
-75.211624
396.172699
-23.106190
58.735126
-217.426697
-5.036157
364.602753
156.150940
-139.043045
389.287445
-21.242062
302.455078
256.092346
-254.288361
-163.727737
-91.808395
-142.410507
104.346176
-437.273773
102.421913
-80.022285
112.824959
-21.211994
407.267273
-247.673706
-417.038940
-225.123749
339.226532
-324.163177
-80.322952
308.167725
-476.360352
-37.177364
124.611069
-454.171204
59.817524
452.998596
-179.242096
-198.274261
302.184479
-421.158051
188.953613
148.213364
362.558228
-207.354385
-436.041016
290.578766
31.524841
-192.230881
454.411713
-294.697876
-113.426292
-351.884583
-186.578354
-266.675812
430.238159
-214.149445
-0.496099
-237.451065
466.739044
-338.324554
-127.046463
358.739777
263.939758
-94.694794
-119.980812
368.872223
-444.038757
432.673553
277.259247
-336.129669
366.797607
441.513153
183.932495
-336.941467
-442.385071
-214.269699
-224.161621
-205.911179
280.025391
-408.860809
-84.351875
79.240555
-216.043640
-84.321808
-186.879028
-219.260757
-114.418488
364.963562
-388.716187
238.232788
412.829590
-131.135529
-355.041565
-442.836090
-114.659019
-263.007690
-246.230515
-414.152527
-228.641541
415.264984
393.947784
317.638702
168.598526
-226.506821
-75.361961
485.410400
191.419083
394.128174
-275.876190
-344.698669
64.507912
-157.083008
372.149475
320.164307
260.812805
-340.609589
-197.492538
141.147705
-345.811127
-431.621246
213.397766
1.668697
-458.139984
-229.152679
129.030869
-465.386047
430.869568
-195.658478
-159.939331
436.762634
337.061737
-362.738617
-110.058830
475.428284
262.917480
282.220245
-322.689911
367.729675
-118.778145
-394.458893
41.988022
455.704590
121.303741
-160.179871
-60.027988
336.550598
-156.120880
317.668793
14.867939
463.822571
397.796295
-462.168915
-253.326233
60.388790
-204.949051
-468.783569
-208.045914
354.199707
223.770752
-217.005768
215.532501
-253.566757
-463.792511
48.061478
-258.587891
-429.125702
-471.489563
-424.705902
66.582512
224.191681
-387.453369
186.247620
72.806297
303.838135
-105.037704
487.094147
-109.247032
-313.008453
314.902649
-67.454445
37.808762
-346.472595
142.891571
250.710434
-100.617912
178.971497
179.723175
95.416389
457.237976
361.175171
15.318938
-366.857758
-1.217698
-313.850311
169.410324
13.364609
218.479034
-60.719521
-275.725861
363.039307
-289.165619
206.241913
-103.804977
373.051483
-487.815735
444.369476
-274.914062
-71.453300
-224.342026
127.978531
-353.959167
-275.184662
386.942261
308.077545
400.502289
-374.584869
60.539120
462.138855
378.192871
107.202499
-264.931946
-9.305616
270.825012
-469.926086
313.369263
-48.332077
-260.271606
353.748718
-451.074341
-196.139542
-412.589081
-440.430756
338.715393
485.891479
-89.944267
-388.896576
9.004950
-386.852051
220.854294
-289.706818
290.699036
467.941711
-426.840637
-138.501846
1 20
449.931793
-116.673485
-166.042862
181.827835
381.800873
-118.116684
-65.740646
172.056183
-229.453339
-16.912468
27.435783
297.584290
289.766968
242.682648
-13.124076
322.930450
58.163860
-217.937836
-150.558548
-439.258148
1 31
405.162628
259.008820
-129.572067
-214.389969
-284.475250
-172.837921
-443.196869
375.967926
-247.463242
-94.754929
-349.870117
369.714081
106.510971
279.454102
-298.666687
-47.580414
257.896362
-65.680511
134.442856
300.049744
-320.735565
-174.702042
456.335999
206.302048
-297.975159
357.507050
-445.993073
239.615860
-457.087646
-363.700775
-411.446533
